{
  "n_features": 5,
  "n_layers": 4,
  "layer_sizes": [
    5,
    32,
    32,
    16,
    1
  ],
  "activation": "tanh",
  "output_activation": "softplus",
  "scaler_mean": [
    0.13885745749879624,
    0.9949716045124078,
    0.0024692520487931548,
    -0.09759983340351991,
    1.6666663625596692
  ],
  "scaler_std": [
    0.17598286732353602,
    0.5799493223975912,
    0.15051416982545165,
    0.15892233746786555,
    2.196408260487722
  ],
  "weights": [
    [
      [
        -0.3609221279621124,
        0.002881764667108655,
        -0.27767518162727356,
        -0.13919353485107422,
        0.2802329361438751
      ],
      [
        0.02244391106069088,
        0.1449834555387497,
        -0.0988975539803505,
        0.007911734282970428,
        0.07302407175302505
      ],
      [
        -0.07533671706914902,
        -0.2963642179965973,
        -0.016223134472966194,
        0.03168615326285362,
        0.32945534586906433
      ],
      [
        -0.011073079891502857,
        -0.049272432923316956,
        0.3847907781600952,
        -0.2639724016189575,
        -0.21196116507053375
      ],
      [
        0.3831065893173218,
        -0.4363182485103607,
        -0.25939854979515076,
        -0.3652706444263458,
        0.4539150297641754
      ],
      [
        -0.006926023401319981,
        0.06460539996623993,
        0.18545567989349365,
        -0.3738160729408264,
        0.25418755412101746
      ],
      [
        0.3615839183330536,
        0.029076984152197838,
        0.21869073808193207,
        0.2049759477376938,
        0.0859522670507431
      ],
      [
        0.09249630570411682,
        0.05518093705177307,
        -0.21481171250343323,
        0.02102741040289402,
        -0.260125070810318
      ],
      [
        0.2816571295261383,
        0.2242385447025299,
        -0.19903570413589478,
        -0.28718167543411255,
        -0.08107660710811615
      ],
      [
        -0.2981208264827728,
        -0.2327503114938736,
        -0.3277849555015564,
        0.25434890389442444,
        -0.12258873879909515
      ],
      [
        -0.21001821756362915,
        0.2511032521724701,
        -0.03778260573744774,
        -0.389548659324646,
        -0.03526556119322777
      ],
      [
        -0.047939371317625046,
        0.24914751946926117,
        0.31221529841423035,
        0.42327630519866943,
        -0.11502155661582947
      ],
      [
        -0.3862909972667694,
        -0.044662922620773315,
        0.019093723967671394,
        -0.3961225748062134,
        0.18015551567077637
      ],
      [
        -0.251664936542511,
        -0.10494539886713028,
        -0.22873105108737946,
        -0.49023666977882385,
        -0.29268530011177063
      ],
      [
        -0.036302436143159866,
        -0.3328651189804077,
        0.11330810934305191,
        0.10936751216650009,
        0.3559512495994568
      ],
      [
        0.12251491844654083,
        0.10842342674732208,
        0.34340667724609375,
        0.26755258440971375,
        -0.2767292261123657
      ],
      [
        -0.3501284122467041,
        0.16249911487102509,
        -0.27821892499923706,
        -0.5918500423431396,
        -0.168442040681839
      ],
      [
        -0.20221292972564697,
        0.4256034791469574,
        -0.23652292788028717,
        -0.0733771100640297,
        0.15305234491825104
      ],
      [
        0.16468319296836853,
        0.07803627103567123,
        -0.31337088346481323,
        0.17049075663089752,
        -0.13130216300487518
      ],
      [
        -0.3812415599822998,
        -0.2748095691204071,
        0.14286701381206512,
        -0.2931359112262726,
        -0.24118740856647491
      ],
      [
        0.24790845811367035,
        -0.05305293947458267,
        0.4477725327014923,
        0.1492200493812561,
        -0.18454691767692566
      ],
      [
        -0.11432837694883347,
        0.13501320779323578,
        -0.19545185565948486,
        -0.10570643842220306,
        0.11495311558246613
      ],
      [
        -0.18917760252952576,
        -0.02396794594824314,
        0.12885071337223053,
        -0.4406942129135132,
        -0.22287142276763916
      ],
      [
        -0.4925510287284851,
        -0.029836146160960197,
        0.5486637949943542,
        0.05218541622161865,
        0.05650825798511505
      ],
      [
        -0.16613882780075073,
        -0.40617674589157104,
        0.003552159992977977,
        0.23097091913223267,
        0.08434087038040161
      ],
      [
        0.2291465401649475,
        -0.010160008445382118,
        -0.23026984930038452,
        -0.15257112681865692,
        0.30147477984428406
      ],
      [
        -0.009498088620603085,
        -0.20252740383148193,
        0.13920864462852478,
        0.42285269498825073,
        0.14435237646102905
      ],
      [
        0.3395736813545227,
        -0.03708861768245697,
        -0.11748842895030975,
        -0.060303907841444016,
        -0.19393590092658997
      ],
      [
        0.42660465836524963,
        0.21899600327014923,
        -0.30385076999664307,
        -0.46604403853416443,
        -0.3288739025592804
      ],
      [
        0.3407087028026581,
        0.045553021132946014,
        0.054892245680093765,
        0.09060061722993851,
        -0.00019296497339382768
      ],
      [
        0.2763485908508301,
        -0.2595175504684448,
        0.15309949219226837,
        0.09388739615678787,
        0.3594878911972046
      ],
      [
        -0.4752008318901062,
        -0.037008464336395264,
        -0.41947513818740845,
        -0.10949461162090302,
        -0.18928784132003784
      ]
    ],
    [
      [
        0.15411728620529175,
        0.021008325740695,
        0.16022372245788574,
        -0.011013198643922806,
        0.07694431394338608,
        -0.05992581322789192,
        -0.04397110268473625,
        -0.17679572105407715,
        -0.015437202528119087,
        0.05551121383905411,
        -0.08341865986585617,
        -0.06913482397794724,
        -0.1652839332818985,
        -0.1180824562907219,
        0.050644200295209885,
        -0.17674940824508667,
        -0.007320702075958252,
        0.15800277888774872,
        0.059787213802337646,
        0.18382062017917633,
        -0.05607469752430916,
        0.010143689811229706,
        -0.020121127367019653,
        -0.08008232712745667,
        0.13520574569702148,
        -0.15486998856067657,
        -0.14457392692565918,
        0.148528054356575,
        0.07236401736736298,
        0.01783241517841816,
        -0.16996756196022034,
        0.024224188178777695
      ],
      [
        0.01895756646990776,
        -0.12489490211009979,
        -0.11235284060239792,
        -0.15478001534938812,
        0.1447068303823471,
        0.06917873024940491,
        0.09431399405002594,
        0.05677700415253639,
        0.021256737411022186,
        0.14850415289402008,
        -0.07326934486627579,
        -0.18870960175991058,
        -0.0428507924079895,
        0.01980089582502842,
        0.13912029564380646,
        -0.06195308268070221,
        -0.14408963918685913,
        0.09477927535772324,
        -0.12307821959257126,
        -0.055486589670181274,
        -0.0355222150683403,
        -0.03206324204802513,
        0.14943067729473114,
        -0.06798554211854935,
        -0.052174825221300125,
        -0.09111762046813965,
        0.14137746393680573,
        -0.09395846724510193,
        -0.07365341484546661,
        0.043819401413202286,
        0.04146415740251541,
        -0.0026298670563846827
      ],
      [
        -0.15545161068439484,
        0.04125971347093582,
        0.1876765787601471,
        -0.05462618172168732,
        -0.1372489333152771,
        0.027742523699998856,
        0.13036668300628662,
        -0.07505523413419724,
        0.014198648743331432,
        0.06932169198989868,
        0.05917498096823692,
        0.14780929684638977,
        -0.10721889138221741,
        -0.17566807568073273,
        -0.14658188819885254,
        -0.09417866170406342,
        -0.17275363206863403,
        -0.14691710472106934,
        0.04008399322628975,
        -0.09839805960655212,
        -0.10646569728851318,
        -0.24084681272506714,
        -0.05150867998600006,
        0.04065272957086563,
        0.1421869844198227,
        -0.015164858661592007,
        -0.0576949417591095,
        -0.17443111538887024,
        -0.16017849743366241,
        0.016672562807798386,
        -0.004212625790387392,
        -0.05503480136394501
      ],
      [
        0.016585245728492737,
        0.06543704867362976,
        -0.01685255393385887,
        0.15120883285999298,
        -0.18587544560432434,
        -0.016694242134690285,
        0.10005486011505127,
        0.0890047550201416,
        0.050553638488054276,
        0.00146814389154315,
        0.02053474448621273,
        0.1814645379781723,
        -0.10524024814367294,
        -0.07283050566911697,
        0.0756891518831253,
        0.04065995663404465,
        -0.09949655830860138,
        0.1803542822599411,
        0.016313375905156136,
        -0.15422455966472626,
        0.19040480256080627,
        -0.009314282797276974,
        -0.11884314566850662,
        0.004288699012249708,
        0.11266531050205231,
        0.06945526599884033,
        0.026253120973706245,
        0.11028852313756943,
        0.15515980124473572,
        0.026003705337643623,
        0.1392890065908432,
        0.1769391894340515
      ],
      [
        -0.21552349627017975,
        -0.08847922086715698,
        -0.0503440722823143,
        -0.1245628222823143,
        -0.069975845515728,
        0.029506422579288483,
        0.1704072654247284,
        -0.1446060836315155,
        -0.025762740522623062,
        0.05125942453742027,
        -0.007615634240210056,
        0.11732839047908783,
        0.11694542318582535,
        -0.1097567230463028,
        -0.10088106244802475,
        0.1021762564778328,
        0.18601003289222717,
        0.03727230057120323,
        -0.09092599898576736,
        0.050317466259002686,
        0.09648659080266953,
        0.08623383939266205,
        0.08420718461275101,
        0.049696195870637894,
        -0.12266100198030472,
        -0.008964461274445057,
        -0.15942125022411346,
        0.015534847974777222,
        0.04725906252861023,
        0.0740891769528389,
        0.011341886594891548,
        -0.13550594449043274
      ],
      [
        -0.05729445442557335,
        0.15651759505271912,
        -0.04695252329111099,
        -0.053494542837142944,
        0.12717752158641815,
        0.00015668233390897512,
        -0.09901674091815948,
        -0.1442156434059143,
        0.05542730167508125,
        0.07342550158500671,
        0.16662487387657166,
        -0.13416728377342224,
        0.1198408231139183,
        0.15940581262111664,
        0.025037027895450592,
        0.014155825600028038,
        0.1591680943965912,
        0.02807043492794037,
        -0.12880736589431763,
        -0.031036335974931717,
        0.12965859472751617,
        -0.17012399435043335,
        -0.04292351379990578,
        0.19735871255397797,
        -0.06942887604236603,
        -0.0268786009401083,
        -0.003819339210167527,
        0.07081343978643417,
        0.008655775338411331,
        -0.04337840527296066,
        0.04598226398229599,
        0.051315777003765106
      ],
      [
        0.1929396241903305,
        0.1112055703997612,
        0.06516147404909134,
        -0.014930360019207,
        -0.08069130033254623,
        0.20821554958820343,
        -0.19095614552497864,
        -0.14508342742919922,
        -0.016122352331876755,
        0.014271926134824753,
        -0.11430121958255768,
        0.035027287900447845,
        0.14190877974033356,
        0.03945009410381317,
        0.10843776166439056,
        -0.16056834161281586,
        0.07566476613283157,
        0.08511772006750107,
        -0.024306001141667366,
        0.030756287276744843,
        0.09995266795158386,
        -0.05995015427470207,
        0.09873197972774506,
        -0.06356336921453476,
        0.02066742815077305,
        -0.12481935322284698,
        -0.11091721802949905,
        -0.17893259227275848,
        -0.03907197713851929,
        -0.02311483398079872,
        -0.14813171327114105,
        -0.08334926515817642
      ],
      [
        0.10451391339302063,
        -0.07292095571756363,
        -0.1487942934036255,
        0.09077772498130798,
        0.0330699160695076,
        0.13882608711719513,
        -0.07876484096050262,
        0.12133179605007172,
        0.009557811543345451,
        -0.02240256778895855,
        -0.06168260797858238,
        0.14082486927509308,
        0.1797812134027481,
        -0.1331239491701126,
        0.09926488250494003,
        -0.1020638570189476,
        0.06130586192011833,
        -0.07798899710178375,
        0.06245429813861847,
        0.21292583644390106,
        -0.11593557894229889,
        -0.0994257777929306,
        0.15753458440303802,
        -0.04357747361063957,
        0.030248992145061493,
        -0.05645938217639923,
        -0.09604372084140778,
        0.11410993337631226,
        -0.12377879023551941,
        -0.038166459649801254,
        -0.16744296252727509,
        -0.08456968516111374
      ],
      [
        0.02574176713824272,
        -0.11001739650964737,
        0.09296785295009613,
        -0.09535074979066849,
        0.11890849471092224,
        -0.18288441002368927,
        0.2359597384929657,
        0.05799286067485809,
        -0.11931172758340836,
        -0.11023987084627151,
        -0.21494202315807343,
        0.09609822928905487,
        -0.051235951483249664,
        -0.11000759154558182,
        0.06748491525650024,
        0.12408968061208725,
        -0.05677102506160736,
        0.10623388737440109,
        0.02712976559996605,
        -0.10592322796583176,
        0.042600441724061966,
        -0.11871360242366791,
        0.12858158349990845,
        -0.19562748074531555,
        -0.2030514031648636,
        -0.12534761428833008,
        0.1396418809890747,
        0.023754695430397987,
        0.14503462612628937,
        -0.18366728723049164,
        0.06523352116346359,
        0.02240263670682907
      ],
      [
        -0.11426107585430145,
        0.05586406588554382,
        -0.053056150674819946,
        0.11168978363275528,
        -0.11266090720891953,
        0.24240072071552277,
        0.06427621096372604,
        0.14396879076957703,
        -0.07489470392465591,
        -0.0033838842064142227,
        -0.11621633172035217,
        0.04533793777227402,
        0.1690845936536789,
        -0.008155271410942078,
        -0.10451781749725342,
        -0.19795550405979156,
        -0.01785377785563469,
        0.03606323525309563,
        -0.15484054386615753,
        0.08486330509185791,
        0.05585538223385811,
        0.02616926096379757,
        0.190060093998909,
        -0.06591475009918213,
        0.12211497128009796,
        0.08300897479057312,
        -0.1282070428133011,
        0.06283712387084961,
        0.04878086596727371,
        -0.0247831791639328,
        -0.09355634450912476,
        0.08120818436145782
      ],
      [
        -0.10878399014472961,
        0.12843884527683258,
        -0.029788067564368248,
        -0.13149401545524597,
        0.03445306047797203,
        0.03992857411503792,
        0.03344477340579033,
        0.14623284339904785,
        -0.014509875327348709,
        0.04643651098012924,
        -0.02692616544663906,
        0.10996171832084656,
        0.04277082160115242,
        0.09704650193452835,
        -0.046335216611623764,
        0.05607416480779648,
        0.09366002678871155,
        -0.16434083878993988,
        -0.12755830585956573,
        0.12915050983428955,
        0.10577987879514694,
        0.17396116256713867,
        -0.06869732588529587,
        0.0034637218341231346,
        -0.08014436066150665,
        0.08653198182582855,
        -0.17017678916454315,
        0.06609639525413513,
        0.062454186379909515,
        0.08369865268468857,
        -0.14737187325954437,
        -0.04958399385213852
      ],
      [
        0.08263248205184937,
        0.08953305333852768,
        0.06470886617898941,
        0.10911846160888672,
        -0.015573021024465561,
        -0.17377214133739471,
        0.12411944568157196,
        -0.1712183654308319,
        0.018707100301980972,
        -0.0591309480369091,
        -0.025302650406956673,
        -0.0180786345154047,
        -0.04067084938287735,
        0.1166410744190216,
        0.02203432098031044,
        -0.1139691025018692,
        0.12656770646572113,
        -0.07913218438625336,
        0.11517323553562164,
        0.14719416201114655,
        0.12590833008289337,
        0.026724791154265404,
        0.06594286113977432,
        0.13603512942790985,
        0.13467754423618317,
        -0.07214543968439102,
        0.08750413358211517,
        -0.0689346045255661,
        -0.11383365839719772,
        -0.03134375065565109,
        -0.055718421936035156,
        -0.007791403215378523
      ],
      [
        0.11848506331443787,
        0.13492105901241302,
        -0.006035004276782274,
        0.016561856493353844,
        -0.15906234085559845,
        -0.11484096944332123,
        0.09301921725273132,
        0.15342867374420166,
        0.04452500119805336,
        0.1349722146987915,
        -0.06011273339390755,
        -0.052722468972206116,
        0.13514851033687592,
        0.05004703626036644,
        -0.09680606424808502,
        -0.08776107430458069,
        -0.16752663254737854,
        -0.005830208770930767,
        0.10155177116394043,
        -0.10648959875106812,
        0.08526645600795746,
        0.02999127469956875,
        0.0941949188709259,
        -0.023846963420510292,
        -0.11414835602045059,
        -0.1554935872554779,
        0.02536371722817421,
        0.14960457384586334,
        -0.14823994040489197,
        0.024645930156111717,
        -0.10161371529102325,
        0.16934451460838318
      ],
      [
        -0.025054890662431717,
        0.18484386801719666,
        0.008466430939733982,
        -0.017807623371481895,
        0.09894859790802002,
        -0.0016020856564864516,
        -0.17318016290664673,
        0.06797493249177933,
        0.10782352834939957,
        0.07331874221563339,
        0.17668214440345764,
        -0.12057357281446457,
        -0.13490112125873566,
        0.08267970383167267,
        -0.08606770634651184,
        0.16664616763591766,
        0.02043815515935421,
        0.1225644201040268,
        -0.009192446246743202,
        -0.02111835964024067,
        0.15476271510124207,
        0.10594836622476578,
        0.06266810745000839,
        0.13650274276733398,
        0.1019289642572403,
        -0.16516900062561035,
        0.11279240250587463,
        -0.021756397560238838,
        0.04815300554037094,
        0.17460431158542633,
        0.02961864322423935,
        0.0749981626868248
      ],
      [
        0.08423436433076859,
        0.0930863544344902,
        -0.010372214950621128,
        0.19521841406822205,
        0.022244540974497795,
        -0.015276752412319183,
        -0.08021955192089081,
        0.08920609951019287,
        0.06628978252410889,
        -0.0934385359287262,
        -0.13409236073493958,
        0.012841692194342613,
        -0.1059519350528717,
        0.060511209070682526,
        -0.044962845742702484,
        -0.010307111777365208,
        -0.1534755825996399,
        0.02829660102725029,
        -0.11445199698209763,
        -0.15383435785770416,
        -0.048004478216171265,
        -0.18147315084934235,
        0.055815111845731735,
        0.23082074522972107,
        -0.05731932073831558,
        0.08647935837507248,
        0.04460377246141434,
        0.06997421383857727,
        -0.11590874940156937,
        0.04699091985821724,
        0.14923319220542908,
        -0.060752857476472855
      ],
      [
        0.1862799972295761,
        -0.04665638133883476,
        0.1387798935174942,
        0.028085879981517792,
        -0.09346376359462738,
        -0.05405886098742485,
        0.040293093770742416,
        0.12404096126556396,
        -0.019755881279706955,
        -0.14932362735271454,
        -0.022314371541142464,
        -0.04112420976161957,
        0.019272081553936005,
        0.048820920288562775,
        -0.019393693655729294,
        -0.1036071702837944,
        0.09852210432291031,
        -0.10246815532445908,
        -0.0528121218085289,
        -0.057076096534729004,
        -0.043838221579790115,
        -0.15241692960262299,
        0.021336020901799202,
        -0.33718088269233704,
        0.08536740392446518,
        0.04450947046279907,
        0.06283256411552429,
        -0.1723145991563797,
        -0.14149150252342224,
        0.20785526931285858,
        0.16211149096488953,
        -0.05936291813850403
      ],
      [
        -0.08586299419403076,
        0.12819615006446838,
        0.036889925599098206,
        0.16950535774230957,
        -0.06609188765287399,
        -0.03266743943095207,
        -0.07950794696807861,
        -0.03734729811549187,
        -0.1469683200120926,
        -0.06840600073337555,
        -0.1129475012421608,
        -0.08909935504198074,
        -0.02404891513288021,
        -0.015186537988483906,
        0.1382986605167389,
        -0.039722006767988205,
        0.06058679521083832,
        0.07746077328920364,
        -0.09754803776741028,
        -0.012526712380349636,
        -0.08636446297168732,
        0.0379364900290966,
        0.009348418563604355,
        -0.0937347486615181,
        0.06728222221136093,
        0.09780581295490265,
        0.012336294166743755,
        0.0239997711032629,
        0.0110402787104249,
        0.008617834188044071,
        -0.23413978517055511,
        -0.15830720961093903
      ],
      [
        -0.16528809070587158,
        0.0615975558757782,
        0.0890812799334526,
        -0.1837213635444641,
        0.10681779682636261,
        7.582642138004303e-05,
        0.19749051332473755,
        -0.04943837225437164,
        0.10035242885351181,
        0.02195614017546177,
        -0.19701987504959106,
        -0.0017786326352506876,
        -0.03759658336639404,
        0.05832556635141373,
        -0.12376827001571655,
        -0.008120500482618809,
        -0.14505036175251007,
        -0.07684247940778732,
        -0.09154710918664932,
        0.07984557002782822,
        -0.15433479845523834,
        0.05329238623380661,
        0.10423010587692261,
        0.012317972257733345,
        -0.13627254962921143,
        0.18199147284030914,
        -0.16200074553489685,
        -0.1078382059931755,
        -0.1395033746957779,
        0.037669241428375244,
        0.16103555262088776,
        -0.1645323485136032
      ],
      [
        0.028002871200442314,
        -0.004338677041232586,
        -0.14277087152004242,
        -0.034306153655052185,
        -0.015415310859680176,
        -0.07131345570087433,
        -0.019554195925593376,
        0.14769233763217926,
        -0.15186190605163574,
        0.11430861800909042,
        0.04249904304742813,
        0.07934336364269257,
        -0.17982347309589386,
        -0.04144829511642456,
        -0.0033795044291764498,
        -0.09004951268434525,
        -0.12233743816614151,
        0.18637242913246155,
        -0.08418968319892883,
        -0.1490286886692047,
        -0.05967488884925842,
        -0.05967721715569496,
        0.03346431627869606,
        0.2665098309516907,
        0.11002908647060394,
        0.0389535017311573,
        -0.14726349711418152,
        -0.10679188370704651,
        0.08587407320737839,
        -0.021876100450754166,
        0.0852479487657547,
        0.14484469592571259
      ],
      [
        0.06172676011919975,
        -0.06495347619056702,
        -0.19617272913455963,
        0.09298448264598846,
        -0.09787417203187943,
        0.14151181280612946,
        0.07326573878526688,
        -0.02896532043814659,
        0.13383913040161133,
        0.07891985028982162,
        -0.10985906422138214,
        0.14954477548599243,
        0.20241551101207733,
        -0.03594907373189926,
        0.06503226608037949,
        0.07098986953496933,
        -0.13558277487754822,
        0.11999092251062393,
        0.07896318286657333,
        0.0023091083858162165,
        -0.11095244437456131,
        -0.1772674322128296,
        0.1775978058576584,
        -0.08424636721611023,
        -0.013882980681955814,
        -0.13961932063102722,
        0.11465993523597717,
        -0.03940586373209953,
        0.11202393472194672,
        -0.17752864956855774,
        -0.13959179818630219,
        -0.022171683609485626
      ],
      [
        0.1816922277212143,
        0.002950554946437478,
        -0.1239430382847786,
        -0.07672230899333954,
        0.11586038023233414,
        -0.01817052997648716,
        -0.20912247896194458,
        -0.17513883113861084,
        0.011554593220353127,
        0.08776794373989105,
        0.1796599179506302,
        0.033489126712083817,
        -0.1204475685954094,
        -0.08556272089481354,
        0.22752660512924194,
        -0.058522745966911316,
        -0.14965187013149261,
        0.12137856334447861,
        -0.07827236503362656,
        0.08867911994457245,
        0.020338943228125572,
        -0.05406920984387398,
        0.13691505789756775,
        0.1042914167046547,
        -0.053445443511009216,
        0.003717239713296294,
        -0.15504051744937897,
        -0.027341879904270172,
        0.14460358023643494,
        0.16190020740032196,
        -0.11527425795793533,
        0.10308674722909927
      ],
      [
        0.10461635142564774,
        -0.0754827931523323,
        0.058860812336206436,
        0.02090483531355858,
        -0.04435756802558899,
        0.010557007975876331,
        -0.004222237039357424,
        0.09600406140089035,
        0.04491962119936943,
        0.10053609311580658,
        -0.145197793841362,
        0.07796883583068848,
        0.1468675583600998,
        -0.027083784341812134,
        -0.16376593708992004,
        -0.008403060026466846,
        0.01227894052863121,
        -0.12403465062379837,
        0.021935811266303062,
        -0.16117067635059357,
        0.09629295766353607,
        0.13015121221542358,
        -0.06873896718025208,
        -0.10152708739042282,
        -0.12516339123249054,
        0.07860520482063293,
        0.009007498621940613,
        0.12967762351036072,
        -0.11855901032686234,
        -0.008611967787146568,
        0.06372540444135666,
        -0.058059148490428925
      ],
      [
        -0.16246269643306732,
        -0.15823344886302948,
        -0.16262201964855194,
        0.09494473785161972,
        -0.13437364995479584,
        0.1439885050058365,
        -0.04507584869861603,
        -0.14538104832172394,
        -0.053339891135692596,
        -0.026651060208678246,
        -0.10062325745820999,
        0.15106667578220367,
        -0.0891319066286087,
        0.015688493847846985,
        0.016558432951569557,
        -0.05415312945842743,
        0.1801595836877823,
        -0.17848138511180878,
        -0.007783214095979929,
        -0.04102059826254845,
        -0.04436330497264862,
        0.06102270260453224,
        0.050979677587747574,
        -0.1833183318376541,
        -0.1469542533159256,
        0.11211563646793365,
        0.16031116247177124,
        0.1901492178440094,
        0.03319902345538139,
        0.14198212325572968,
        0.061348218470811844,
        -0.03513671085238457
      ],
      [
        -0.016908686608076096,
        -0.10253722220659256,
        0.0018353519262745976,
        -0.1920197606086731,
        0.10312563925981522,
        -0.042990781366825104,
        0.07948904484510422,
        0.1490832269191742,
        -0.09004958719015121,
        -0.015318648889660835,
        -0.14106935262680054,
        -0.08141160756349564,
        0.0730385109782219,
        0.060576774179935455,
        -0.11877549439668655,
        0.18912220001220703,
        -0.09935103356838226,
        0.09677153825759888,
        0.0709606409072876,
        -0.08824443072080612,
        0.014346673153340816,
        0.06777575612068176,
        0.19802379608154297,
        -0.15905918180942535,
        0.03250589221715927,
        0.12103031575679779,
        0.07935596257448196,
        -0.05285690352320671,
        -0.20761321485042572,
        0.06685176491737366,
        0.023841630667448044,
        -0.0677618533372879
      ],
      [
        0.16067306697368622,
        -0.05815012753009796,
        0.06127350777387619,
        -0.13072770833969116,
        -0.07193230092525482,
        -0.09300493448972702,
        0.11383021622896194,
        -0.11416491866111755,
        -0.19010326266288757,
        0.021723899990320206,
        -0.1489982008934021,
        -0.14087513089179993,
        -0.2122383713722229,
        -0.03905684873461723,
        0.04347445070743561,
        0.05063445121049881,
        -0.005421909037977457,
        0.17937645316123962,
        -0.15460385382175446,
        -0.12591224908828735,
        0.11020449548959732,
        0.010905049741268158,
        -0.06347881257534027,
        0.07146155834197998,
        0.052315469831228256,
        0.02071581967175007,
        0.19385777413845062,
        -0.14831048250198364,
        0.08032041788101196,
        -0.06372156739234924,
        -0.032476700842380524,
        0.019529782235622406
      ],
      [
        0.07149480283260345,
        -0.15492920577526093,
        -0.04775913059711456,
        -0.0025362172164022923,
        0.14508236944675446,
        -0.14084237813949585,
        -0.10622277855873108,
        0.03575490415096283,
        -0.0757649764418602,
        -0.10761992633342743,
        -0.0067851245403289795,
        -0.006992330774664879,
        0.18217626214027405,
        0.04357766732573509,
        -0.08814272284507751,
        -0.06498438119888306,
        -0.06815949827432632,
        0.09264243394136429,
        -0.12693718075752258,
        -0.06552210450172424,
        0.08653578907251358,
        -0.10990849882364273,
        -0.08216753602027893,
        0.0016870381077751517,
        0.07248026132583618,
        0.2013467252254486,
        0.042229413986206055,
        0.048300448805093765,
        0.11750389635562897,
        -0.017166540026664734,
        -0.13820016384124756,
        -0.08097970485687256
      ],
      [
        0.08443889766931534,
        0.02171405404806137,
        -0.1205536276102066,
        -0.007112792693078518,
        -0.13278310000896454,
        -0.007501590996980667,
        -0.1508791744709015,
        0.035837478935718536,
        0.009197153151035309,
        0.12359894812107086,
        0.07244651019573212,
        0.05049368739128113,
        0.20309367775917053,
        0.1543300896883011,
        -0.10318959504365921,
        -0.149412140250206,
        0.10935845226049423,
        0.09744635969400406,
        0.1268140822649002,
        -0.0016342638991773129,
        -0.12888284027576447,
        0.20878112316131592,
        0.1480989009141922,
        -0.07211298495531082,
        0.1537466198205948,
        -0.020070208236575127,
        -0.1685595065355301,
        -0.030406404286623,
        -0.16728368401527405,
        -0.01600613445043564,
        0.010720587335526943,
        -0.14243517816066742
      ],
      [
        0.023098621517419815,
        0.09119097888469696,
        -0.0775776132941246,
        -0.035498302429914474,
        -0.03745466098189354,
        -0.018695790320634842,
        0.19192714989185333,
        0.1898239403963089,
        0.02658998593688011,
        0.10658539831638336,
        -0.014491005800664425,
        -0.167650505900383,
        0.03728976845741272,
        0.15304414927959442,
        -0.19823555648326874,
        -0.11977942287921906,
        0.18252040445804596,
        -0.05471566691994667,
        0.06636247783899307,
        -0.20487529039382935,
        -0.17264454066753387,
        -0.03842513635754585,
        0.06411503255367279,
        -0.3328871428966522,
        0.1241883635520935,
        0.12197905778884888,
        -0.07951952517032623,
        -0.04853849858045578,
        -0.13883426785469055,
        -0.06970715522766113,
        0.1071111336350441,
        0.04116378724575043
      ],
      [
        -0.14335131645202637,
        -0.03021608293056488,
        -0.1255844533443451,
        0.02935422584414482,
        -0.02680753543972969,
        -0.002833291655406356,
        0.1471707671880722,
        0.03423646464943886,
        0.09386066347360611,
        -0.1576014757156372,
        -0.09237266331911087,
        -0.060544490814208984,
        0.11771450191736221,
        -0.19703929126262665,
        0.019823012873530388,
        0.04276515915989876,
        -0.1542375534772873,
        0.051776595413684845,
        0.13494612276554108,
        -0.12226469069719315,
        -0.016687704250216484,
        -0.037392131984233856,
        0.18808484077453613,
        -0.10142791271209717,
        -0.11394145339727402,
        0.1173437088727951,
        0.16400355100631714,
        -0.036931902170181274,
        -0.01059164572507143,
        0.07844562083482742,
        -0.12705647945404053,
        0.04686719551682472
      ],
      [
        -0.08382584154605865,
        -0.034724656492471695,
        0.12264315038919449,
        0.040691498667001724,
        0.008605454117059708,
        0.011283510364592075,
        0.06719156354665756,
        -0.11850672960281372,
        -0.09065992385149002,
        0.0009236912010237575,
        -0.03206270933151245,
        0.004293627105653286,
        -0.06578915566205978,
        0.11824232339859009,
        0.09580782055854797,
        -0.08857821673154831,
        0.142119362950325,
        -0.09168027341365814,
        -0.00860052090138197,
        0.141704261302948,
        -0.027566997334361076,
        -0.1009843721985817,
        0.0677104964852333,
        -0.08444288372993469,
        0.05672062188386917,
        0.07957608252763748,
        -0.15397539734840393,
        0.0727132260799408,
        -0.08536998927593231,
        0.10968723893165588,
        -0.08529496192932129,
        -0.2106606811285019
      ],
      [
        0.14191389083862305,
        -0.16374646127223969,
        0.04762070253491402,
        -0.07775959372520447,
        0.025763999670743942,
        0.26340818405151367,
        -0.14907093346118927,
        -0.006003754213452339,
        -0.04294739291071892,
        0.17325054109096527,
        0.05809503793716431,
        -0.11864955723285675,
        0.03383452817797661,
        0.18859320878982544,
        -0.023064300417900085,
        -0.07346005737781525,
        0.1370360255241394,
        0.08784005045890808,
        -0.021317973732948303,
        0.14588478207588196,
        0.018419330939650536,
        0.2841793894767761,
        0.1514255702495575,
        0.03495500236749649,
        -0.07159391045570374,
        0.06664160639047623,
        -0.005955933593213558,
        -0.12963750958442688,
        0.16215841472148895,
        -0.17492058873176575,
        -0.013029634952545166,
        -0.05500892922282219
      ],
      [
        0.1210472360253334,
        -0.0977357029914856,
        0.06175396218895912,
        0.11608506739139557,
        0.008451017551124096,
        0.1960255205631256,
        0.05163058638572693,
        -0.11066647619009018,
        -0.14013977348804474,
        -0.015161546878516674,
        0.12072192877531052,
        -0.16099415719509125,
        -0.17633897066116333,
        0.16803352534770966,
        -0.0025534802116453648,
        -0.140888512134552,
        0.018368752673268318,
        0.09598024934530258,
        -0.0830879881978035,
        0.15208056569099426,
        0.12931860983371735,
        0.19986264407634735,
        -0.0980093851685524,
        -0.010336424224078655,
        0.15778584778308868,
        0.1424681544303894,
        -0.17336899042129517,
        -0.07497996091842651,
        0.017348874360322952,
        0.06569520384073257,
        -0.16961607336997986,
        0.17079457640647888
      ]
    ],
    [
      [
        0.12692905962467194,
        -0.07703307271003723,
        -0.17108023166656494,
        0.058554522693157196,
        0.13702404499053955,
        0.08629152923822403,
        -0.0666479840874672,
        0.10659642517566681,
        -0.08178111165761948,
        0.04157307744026184,
        0.13299386203289032,
        -0.14732980728149414,
        0.07580257207155228,
        0.0012632006546482444,
        0.059669166803359985,
        0.18258978426456451,
        -0.15442410111427307,
        -0.05477411299943924,
        0.045141082257032394,
        -0.13039465248584747,
        0.027685794979333878,
        0.15966258943080902,
        0.07529722899198532,
        0.18497613072395325,
        0.12307199090719223,
        -0.08299568295478821,
        -0.04225858673453331,
        -0.010288388468325138,
        0.19504660367965698,
        -0.08980908244848251,
        -0.03068581596016884,
        -0.18235038220882416
      ],
      [
        -0.12955322861671448,
        -0.018035227432847023,
        0.11159756779670715,
        -0.11307036876678467,
        0.04408044368028641,
        -0.04816453903913498,
        0.10419008880853653,
        0.12633498013019562,
        -0.10144086927175522,
        0.03343569114804268,
        0.09787853807210922,
        -0.09570900350809097,
        -0.03108324483036995,
        0.13776656985282898,
        0.18859370052814484,
        0.10236065089702606,
        0.10242333263158798,
        -0.14053909480571747,
        0.021414021030068398,
        0.12191715091466904,
        0.0005951979546807706,
        -0.006774881388992071,
        -0.10115338116884232,
        -0.08553270250558853,
        -0.021332070231437683,
        -0.1684648096561432,
        -0.17901849746704102,
        -0.1985878348350525,
        0.131007120013237,
        -0.051908351480960846,
        -0.0364377424120903,
        -0.06157853826880455
      ],
      [
        -0.03470698371529579,
        -0.06840430945158005,
        0.09213614463806152,
        0.07362096756696701,
        -0.04205711930990219,
        0.0736888125538826,
        -0.09507608413696289,
        -0.021510113030672073,
        0.006846074014902115,
        -0.13861674070358276,
        0.04390505701303482,
        -0.12789617478847504,
        0.15560150146484375,
        0.12502877414226532,
        0.16477276384830475,
        -0.015550998970866203,
        -0.12340184301137924,
        0.03336377069354057,
        0.0579536147415638,
        0.04500167444348335,
        0.02342790551483631,
        -0.004898954648524523,
        -0.13677705824375153,
        0.04607420042157173,
        0.20761051774024963,
        0.058293309062719345,
        0.02598050981760025,
        -0.04314399138092995,
        0.12494853138923645,
        -0.17690825462341309,
        -0.08459069579839706,
        -0.0454585887491703
      ],
      [
        0.01955416239798069,
        0.03627566620707512,
        -0.15032517910003662,
        0.15242129564285278,
        0.05286673083901405,
        -0.030189836397767067,
        -0.18102683126926422,
        0.009284134022891521,
        -0.06670230627059937,
        -0.17715197801589966,
        -0.1482500284910202,
        0.176839217543602,
        0.03486254811286926,
        -0.06800778210163116,
        -0.07997080683708191,
        0.07713182270526886,
        0.0033886937890201807,
        -0.10188236832618713,
        -0.11315731704235077,
        0.07357136905193329,
        -0.10268283635377884,
        -0.19844752550125122,
        -0.024521254003047943,
        -0.19693045318126678,
        0.09802643954753876,
        0.024483416229486465,
        -0.004320125095546246,
        -0.1529036909341812,
        -0.01041375007480383,
        -0.031132858246564865,
        0.07360021024942398,
        0.0991985946893692
      ],
      [
        0.017517410218715668,
        0.008083349093794823,
        -0.12266064435243607,
        -0.1022777259349823,
        -0.13726335763931274,
        -0.18780072033405304,
        -0.12901251018047333,
        0.1836560070514679,
        -0.10135412216186523,
        0.018028924241662025,
        -0.06520956009626389,
        -0.029784400016069412,
        -0.04094040021300316,
        -0.07926050573587418,
        -0.05452748015522957,
        0.04953337088227272,
        0.15895280241966248,
        0.03424210846424103,
        -0.023634392768144608,
        0.08413677662611008,
        -0.12741988897323608,
        0.1043018102645874,
        0.03079826384782791,
        0.09194537252187729,
        -0.01600358448922634,
        -0.1711670458316803,
        -0.025038376450538635,
        0.13326753675937653,
        -0.005839393008500338,
        0.07881411164999008,
        0.19994129240512848,
        0.09105471521615982
      ],
      [
        0.06854092329740524,
        0.1067679151892662,
        -0.02919977903366089,
        -0.18422092497348785,
        0.15670296549797058,
        -0.11876433342695236,
        0.18632908165454865,
        -0.07941136509180069,
        0.1970459520816803,
        -0.01694205217063427,
        0.06987334042787552,
        -0.08659357577562332,
        -0.09566784650087357,
        -0.0788886621594429,
        -0.06762765347957611,
        -0.13220378756523132,
        0.0884111151099205,
        -0.0904402956366539,
        -0.16550086438655853,
        -0.16037647426128387,
        -0.15016648173332214,
        -0.038339268416166306,
        -0.09404674172401428,
        -0.0691448226571083,
        -0.12280560284852982,
        0.17711499333381653,
        0.2041521966457367,
        -0.1033763512969017,
        0.006491892039775848,
        0.22005388140678406,
        0.0887117013335228,
        0.017230506986379623
      ],
      [
        0.1512988805770874,
        -0.15408331155776978,
        0.18465426564216614,
        0.00804727990180254,
        -0.1040942594408989,
        -0.0667707696557045,
        -0.18205901980400085,
        0.06812192499637604,
        -0.028639262542128563,
        -0.10287553071975708,
        -0.03926006704568863,
        0.03241061046719551,
        -0.11164595186710358,
        0.04942159727215767,
        -0.1047484427690506,
        -0.04176729544997215,
        -0.15699131786823273,
        -0.005282149650156498,
        0.012944883666932583,
        -0.041603025048971176,
        -0.11887165904045105,
        -0.04569971561431885,
        -0.08330554515123367,
        -0.048229798674583435,
        0.21205662190914154,
        0.06787791848182678,
        -0.020940382033586502,
        -0.1936630755662918,
        0.042563747614622116,
        0.1122644767165184,
        -0.08993642032146454,
        -0.030372103676199913
      ],
      [
        0.09798164665699005,
        -0.02162913605570793,
        -0.00810690876096487,
        0.01884203962981701,
        0.09686314314603806,
        0.13904082775115967,
        -0.16781605780124664,
        -0.05382903292775154,
        -0.20586557686328888,
        -0.008483566343784332,
        0.05904591828584671,
        -0.09084766358137131,
        0.05416090041399002,
        0.12129747122526169,
        0.01923537626862526,
        -0.06944127380847931,
        -0.12146324664354324,
        0.06728988885879517,
        0.04532415047287941,
        -0.06483940780162811,
        0.11306712031364441,
        -0.1766488254070282,
        -0.0952073186635971,
        -0.2405100166797638,
        0.03569810464978218,
        -0.14052295684814453,
        -0.2041829377412796,
        -0.20118123292922974,
        -0.03787560015916824,
        0.052796777337789536,
        -0.012881746515631676,
        -0.021388953551650047
      ],
      [
        -0.07645523548126221,
        0.05858658254146576,
        -0.14158953726291656,
        -0.0936020091176033,
        0.20901846885681152,
        -0.15438269078731537,
        -0.12742376327514648,
        -0.04109759256243706,
        0.1712731122970581,
        -0.11983577162027359,
        -0.14868901669979095,
        -0.131103977560997,
        -0.08126814663410187,
        0.07181596010923386,
        0.04913342371582985,
        -0.12522447109222412,
        0.11642993241548538,
        0.17390811443328857,
        -0.0954032763838768,
        0.1549980193376541,
        -0.16429954767227173,
        -0.026548156514763832,
        0.13202226161956787,
        0.18201734125614166,
        0.14333395659923553,
        -0.10394825786352158,
        -0.13980519771575928,
        -0.08608239889144897,
        0.05022497475147247,
        0.1662682741880417,
        -0.026831818744540215,
        -0.10689833760261536
      ],
      [
        0.12646989524364471,
        0.029860567301511765,
        -0.13141708076000214,
        0.10907231271266937,
        0.08311154693365097,
        0.022424863651394844,
        -0.14776331186294556,
        0.12366591393947601,
        -0.09025390446186066,
        -0.03157626837491989,
        -0.07230248302221298,
        0.08570391684770584,
        -0.07945030182600021,
        0.1065363734960556,
        -0.01682269759476185,
        -0.17768114805221558,
        0.15301164984703064,
        -0.1436070203781128,
        0.16884727776050568,
        0.1389111876487732,
        -0.12310029566287994,
        0.03843728452920914,
        -0.06128590553998947,
        -0.22594092786312103,
        0.14893712103366852,
        0.052395258098840714,
        -0.054491616785526276,
        -0.05641995370388031,
        -0.10749305039644241,
        -0.1674036681652069,
        0.060923829674720764,
        -0.07308776676654816
      ],
      [
        0.12495674192905426,
        -0.09467968344688416,
        0.019974686205387115,
        0.16813160479068756,
        -0.18326392769813538,
        0.22457058727741241,
        0.08101090788841248,
        -0.016459183767437935,
        -0.04916343465447426,
        0.02046927623450756,
        -0.1212112158536911,
        -0.0018605798250064254,
        0.02230360358953476,
        0.007435638457536697,
        0.14761485159397125,
        -0.04861755296587944,
        0.16276629269123077,
        -0.14034372568130493,
        -0.1167593002319336,
        -0.16394445300102234,
        0.20201946794986725,
        -0.14970996975898743,
        -0.03181071579456329,
        -0.01528292428702116,
        -0.011851429007947445,
        -0.06610780954360962,
        0.08821336925029755,
        0.07216065376996994,
        -0.12641271948814392,
        -0.11915486305952072,
        0.01797679252922535,
        0.1233215481042862
      ],
      [
        -0.1763933002948761,
        -0.11818653345108032,
        0.030390609055757523,
        -0.1433231234550476,
        -0.09557544440031052,
        -0.19779543578624725,
        -0.13665619492530823,
        -0.03148920089006424,
        -0.14873676002025604,
        0.04145190864801407,
        0.0941256433725357,
        -0.0994822308421135,
        0.009033137932419777,
        0.006606396287679672,
        0.1146777793765068,
        0.1378137618303299,
        0.16947291791439056,
        -0.06801237165927887,
        -0.07789396494626999,
        0.16421769559383392,
        -0.09830816090106964,
        0.05663545802235603,
        0.06810525059700012,
        0.23421704769134521,
        -0.12567012012004852,
        -0.11501853168010712,
        0.17814382910728455,
        0.050842661410570145,
        0.08063416928052902,
        0.19276662170886993,
        -0.08914241194725037,
        -0.06615588814020157
      ],
      [
        -0.11488797515630722,
        0.115898996591568,
        -0.11213993281126022,
        0.1178588718175888,
        0.18658658862113953,
        -0.04812367632985115,
        0.10874193906784058,
        0.1907416135072708,
        0.03167739138007164,
        -0.034538112580776215,
        -0.030476056039333344,
        -0.12380814552307129,
        -0.014022785238921642,
        -0.10638037323951721,
        -0.1841939091682434,
        -0.04239260405302048,
        -0.1784089356660843,
        0.1611006259918213,
        -0.03734186291694641,
        0.1774170696735382,
        -0.06457239389419556,
        -0.05220293253660202,
        0.1919405162334442,
        0.06738903373479843,
        -0.14772436022758484,
        0.16850043833255768,
        -0.010794335976243019,
        0.013671779073774815,
        -0.046464577317237854,
        -0.12572452425956726,
        0.19674228131771088,
        -0.13304856419563293
      ],
      [
        0.018249843269586563,
        -0.10669621080160141,
        0.04741572588682175,
        -0.16242022812366486,
        0.1283586025238037,
        -0.20013637840747833,
        -0.11031551659107208,
        -0.0015019989805296063,
        -0.017831677570939064,
        -0.009898989461362362,
        -0.15525516867637634,
        0.018710356205701828,
        -0.1522369384765625,
        0.16020385921001434,
        -0.19444724917411804,
        0.15676863491535187,
        0.044513408094644547,
        0.12209602445363998,
        -0.0712038204073906,
        -0.13513420522212982,
        0.0636683851480484,
        -0.03416675701737404,
        0.09188047796487808,
        -0.12122172117233276,
        0.06352277845144272,
        0.07777754962444305,
        -0.020533712580800056,
        -0.13560429215431213,
        0.08758492022752762,
        0.053643159568309784,
        -0.13142064213752747,
        0.10783954709768295
      ],
      [
        -0.0028895391151309013,
        -0.049986209720373154,
        0.17548471689224243,
        0.025378478690981865,
        0.11284079402685165,
        0.028140535578131676,
        0.07269997894763947,
        0.07108783721923828,
        0.14879287779331207,
        0.01805110275745392,
        -0.14454180002212524,
        -0.14544300734996796,
        0.024228712543845177,
        0.20049135386943817,
        0.00699737248942256,
        -0.02596745267510414,
        -0.07504545152187347,
        -0.133103147149086,
        -0.008284357376396656,
        -0.1834867298603058,
        0.1377042829990387,
        -0.19494296610355377,
        0.048887208104133606,
        -0.12423554807901382,
        -0.06507815420627594,
        0.12606555223464966,
        -0.0755804255604744,
        -0.12288957089185715,
        -0.10638663917779922,
        -0.17769616842269897,
        -0.02931896597146988,
        -0.09763134270906448
      ],
      [
        -0.018966639414429665,
        -0.05434979125857353,
        -0.09427890926599503,
        0.09713687002658844,
        0.07751808315515518,
        -0.045539431273937225,
        0.010557672940194607,
        -0.024091238155961037,
        -0.18058109283447266,
        -0.030259734019637108,
        0.16691115498542786,
        -0.10309705138206482,
        -0.1426098346710205,
        0.09259583801031113,
        0.04046068713068962,
        -0.08812294155359268,
        -0.13118407130241394,
        0.01573280617594719,
        0.1448235660791397,
        -0.16831371188163757,
        0.12697218358516693,
        0.05194610357284546,
        0.08243987709283829,
        -0.18384724855422974,
        0.0968867838382721,
        -0.17830780148506165,
        0.12872442603111267,
        -0.061895906925201416,
        -0.08668085932731628,
        -0.1930701732635498,
        -0.09396831691265106,
        0.05126085504889488
      ]
    ],
    [
      [
        0.18581543862819672,
        -0.12592576444149017,
        -0.07501479983329773,
        -0.08351559191942215,
        0.23310008645057678,
        0.21012377738952637,
        -0.150294691324234,
        -0.1709488481283188,
        0.19482284784317017,
        -0.17000490427017212,
        -0.2668653726577759,
        0.1854974627494812,
        0.17227822542190552,
        0.0013450811384245753,
        -0.05393568426370621,
        -0.06721433997154236
      ]
    ]
  ],
  "biases": [
    [
      -0.21390843391418457,
      -0.2992662787437439,
      -0.13484974205493927,
      -0.21043451130390167,
      -0.1297367364168167,
      -0.040911927819252014,
      0.3396347463130951,
      0.2840898931026459,
      -0.10907678306102753,
      0.4260912537574768,
      -0.4649287164211273,
      -0.08992782235145569,
      0.2815988063812256,
      0.11410938948392868,
      0.24511678516864777,
      0.10093643516302109,
      0.36444711685180664,
      0.057423464953899384,
      0.21574018895626068,
      0.1875503957271576,
      -0.16884146630764008,
      0.06924967467784882,
      0.43879222869873047,
      0.5824878215789795,
      -0.09024859219789505,
      -0.38363635540008545,
      0.4158664643764496,
      1.1696823094098363e-05,
      0.3490670621395111,
      -0.38134831190109253,
      -0.07374180108308792,
      -0.37404340505599976
    ],
    [
      -0.19652444124221802,
      -0.026421090587973595,
      0.007373207248747349,
      -0.06499184668064117,
      0.1103416383266449,
      -0.16547249257564545,
      0.10155224055051804,
      0.021129678934812546,
      0.014304057694971561,
      0.08267500251531601,
      -0.056138090789318085,
      -0.0427742563188076,
      -0.07375466823577881,
      0.011941333301365376,
      -0.15487214922904968,
      0.13552355766296387,
      0.02051089145243168,
      0.017710497602820396,
      0.12535569071769714,
      -0.1478419005870819,
      -0.1981438547372818,
      0.15148590505123138,
      0.044969767332077026,
      -0.0431290827691555,
      -0.007210497744381428,
      0.10010644048452377,
      0.0874507874250412,
      -0.012608583085238934,
      -0.04976050183176994,
      0.17860127985477448,
      0.1983298808336258,
      -0.13035863637924194
    ],
    [
      -0.04717608913779259,
      -0.06824146211147308,
      0.14070764183998108,
      0.01178964413702488,
      0.010290276259183884,
      0.11322104185819626,
      -0.161063089966774,
      0.08682484179735184,
      -0.06757047772407532,
      -0.005659049842506647,
      -0.062110524624586105,
      0.15524250268936157,
      -0.09328974783420563,
      -0.08166950196027756,
      -0.1610211879014969,
      0.055285487323999405
    ],
    [
      0.22110675275325775
    ]
  ]
}